//Numpy array shape [64]
//Min -0.090442910790
//Max 0.033452529460
//Number of zeros 14

#ifndef B2_H_
#define B2_H_

#ifndef __SYNTHESIS__
model_default_t b2[64];
#else
model_default_t b2[64] = {-0.00761110894381999969482422, -0.05205602571368217468261719, -0.03265099599957466125488281, -0.05921169370412826538085938, -0.00361487152986228466033936, -0.02464085817337036132812500, -0.07862719893455505371093750, -0.00341493217274546623229980, -0.02101371251046657562255859, -0.02874488011002540588378906, 0.03345252946019172668457031, 0.00000000000000000000000000, 0.00000000000000000000000000, 0.00000000000000000000000000, -0.04893474280834197998046875, 0.00000000000000000000000000, -0.05478634312748908996582031, 0.00000000000000000000000000, 0.00123199459630995988845825, -0.02203474380075931549072266, -0.01319134235382080078125000, -0.05480586364865303039550781, 0.00000000000000000000000000, -0.01066916901618242263793945, 0.01921843364834785461425781, 0.00000000000000000000000000, 0.00000000000000000000000000, -0.02504741586744785308837891, -0.03112342022359371185302734, -0.02408095262944698333740234, -0.06464380770921707153320312, -0.08123210817575454711914062, -0.00241028098389506340026855, -0.00982257723808288574218750, -0.03771992027759552001953125, 0.00000000000000000000000000, 0.00000000000000000000000000, 0.01789104752242565155029297, 0.01326952129602432250976562, -0.00205585942603647708892822, -0.04295030236244201660156250, 0.00000000000000000000000000, 0.02187344804406166076660156, -0.03516610339283943176269531, -0.02938459627330303192138672, -0.00343478634022176265716553, -0.01648563891649246215820312, -0.02332098223268985748291016, 0.03232534229755401611328125, -0.03544924780726432800292969, -0.00626697344705462455749512, -0.03125596791505813598632812, -0.01755085587501525878906250, -0.01694405265152454376220703, 0.00000000000000000000000000, -0.04581511765718460083007812, 0.00000000000000000000000000, -0.09044291079044342041015625, -0.02458436228334903717041016, -0.02085817605257034301757812, -0.01284868177026510238647461, 0.00000000000000000000000000, 0.00387852452695369720458984, -0.03408697247505187988281250};
#endif

#endif
