//Numpy array shape [64]
//Min -0.069030769169
//Max 0.103877045214
//Number of zeros 2

#ifndef B4_H_
#define B4_H_

#ifndef __SYNTHESIS__
model_default_t b4[64];
#else
model_default_t b4[64] = {0.08954937011003494262695312, -0.04402689263224601745605469, -0.03449395298957824707031250, 0.00367579748854041099548340, 0.10387704521417617797851562, -0.01161918044090270996093750, 0.01695048995316028594970703, 0.07562608271837234497070312, -0.05209105089306831359863281, 0.02576903440058231353759766, -0.06462057679891586303710938, -0.05841413885354995727539062, -0.02584740333259105682373047, -0.02418292686343193054199219, -0.04163061827421188354492188, -0.05184714868664741516113281, -0.02458951249718666076660156, 0.09707394242286682128906250, 0.04388765618205070495605469, -0.04454020783305168151855469, 0.06366994976997375488281250, -0.02394300885498523712158203, -0.00715000275522470474243164, -0.03105762228369712829589844, -0.00155273184645920991897583, -0.00642444798722863197326660, -0.01707549579441547393798828, -0.02125790901482105255126953, -0.01448347885161638259887695, 0.05603884533047676086425781, -0.00084845535457134246826172, 0.09588054567575454711914062, 0.05085187777876853942871094, -0.02595885656774044036865234, -0.05570540577173233032226562, 0.00058891426306217908859253, 0.00000000000000000000000000, -0.04534316435456275939941406, 0.03277404606342315673828125, -0.00000456192356068640947342, -0.06105706468224525451660156, -0.02600982226431369781494141, -0.05397320911288261413574219, 0.00118645397014915943145752, 0.03147046640515327453613281, -0.02221789956092834472656250, 0.00356191373430192470550537, 0.08253838866949081420898438, 0.07895219326019287109375000, -0.04594256728887557983398438, 0.05736900120973587036132812, -0.06903076916933059692382812, -0.01546130049973726272583008, -0.00963410083204507827758789, 0.02890831790864467620849609, 0.01353653892874717712402344, -0.04117464646697044372558594, -0.03424621000885963439941406, -0.01052094530314207077026367, -0.00942724850028753280639648, 0.03709505498409271240234375, 0.01371111255139112472534180, 0.00000000000000000000000000, 0.07456815987825393676757812};
#endif

#endif
