//Numpy array shape [15, 16]
//Min -2.139848947525
//Max 2.077171564102
//Number of zeros 0

#ifndef W2_H_
#define W2_H_

#ifndef __SYNTHESIS__
dense_weight_t w2[240];
#else
dense_weight_t w2[240] = {-0.5141193271, -0.2673603296, 0.2666480541, 0.3015803397, 0.0206045937, 0.7057823539, 0.0067968653, 0.2195636183, 0.4522691369, -0.1772672534, -0.2461766452, -0.0148195028, 0.1752960384, 0.9057425857, 0.5510577559, 0.3627510667, -0.2806302309, -0.8641306162, -0.4277299345, 0.4074775279, -0.1495508701, 0.2075281888, -0.0584940873, -0.0263470802, 0.4042374492, -0.3057600260, 0.4386307597, -0.1342248321, -0.3363767564, 0.2572811544, 0.5171033144, 0.0058337352, -0.3064416051, -0.4136049151, -0.2714993358, 0.5851761103, 0.1313266009, 0.2219888419, -0.2877662778, -0.1111162826, -0.1281032562, 0.1141553521, -0.3301073611, 0.0376206636, -0.1833994538, 0.0764627457, -0.0299537331, -0.0014514579, -0.2756688595, -0.0304638557, -0.3904940188, 0.6704761386, 0.1063777581, 0.4962424934, 0.1680485606, 0.2683093250, -0.0377109721, -0.3461231589, -0.2349346280, -0.2178954184, -0.2117064446, -0.0703843161, 0.4075244367, 0.0194695015, -0.1364894360, -0.1135134026, -0.4108195305, 0.3895062208, -0.1032292247, -0.1694562137, -0.0692302510, 0.6292933226, -0.1843908876, 0.1256296039, -0.3487762511, -0.0803535283, -0.3849124908, -0.1310769171, -0.0660460964, 0.2483312637, 0.7673153281, 1.4913097620, -0.4195319116, -0.3946690559, 1.4465229511, -0.6417609453, 0.7267919183, -0.9706399441, -0.8028164506, -0.2834614515, -0.1400367916, -0.3856557310, 0.0230270270, -1.3303664923, -0.2302125841, -0.5451698303, 0.7613298893, 1.5057921410, -0.1722499430, -1.0423483849, 0.7326532602, -1.0544354916, 0.2263517082, -0.9671379328, -1.0261905193, 0.0408791602, -0.1890579462, 0.1536121964, -0.1353291124, -1.2415459156, -0.5248644948, -0.3522062004, 0.6532189250, 1.1346806288, 0.1750662327, -0.3468172252, 0.7876189947, -0.1548077613, -0.1576010138, -0.0696108937, -0.4177863002, 0.0352317691, -0.2878498435, -0.1887854636, 0.2963476777, -0.4139306545, -0.5448127389, -0.0637219697, 0.1549346894, -0.0230308622, 0.2839345932, 0.3830883503, -0.3127738833, -0.1194758415, -0.1860377342, -0.2936103344, 0.5071561337, -0.2510867715, -0.2238807678, -0.1479206681, -0.0124285724, 0.5978229642, -0.6780918241, -0.1177726910, 0.6829034090, 0.0038792135, 0.3546898365, 0.6495133042, -0.1987058818, 0.1500794441, 0.0647787377, -0.3254124522, 0.6912427545, 0.2657924891, -0.2431774139, -0.0493790507, 0.2656193972, 0.8837735057, -0.7370610833, -0.8885146379, -0.6913872957, -0.6836644411, -0.1141937375, 0.5437358022, 1.1839848757, 2.0695552826, 0.1950850040, 0.8923876286, -0.8578713536, -0.4155360162, 0.0189056098, 0.4088938236, 0.3221657276, -1.2618535757, -0.4122198522, 0.3789992929, 1.0036084652, 0.9323127866, 0.1647856236, -1.0945235491, 1.2418135405, 0.1814199388, -2.1398489475, 0.8506242037, -0.7399776578, 0.0162978470, -0.2248229980, 0.2288880348, 0.3437682092, -0.3609509468, -0.2950211167, 0.4838055372, -0.6241808534, 1.3326469660, 0.3400963545, -1.0886259079, 0.9626686573, -0.7552997470, -0.3637212813, -0.4142702222, 0.3786751032, 0.0324770510, -0.3513830900, 0.1687340140, 0.1968373358, 0.0782903954, -0.0155249136, 2.0771715641, 1.3060374260, 0.3600571752, 0.3751965165, -0.8345339298, -0.1123492494, -0.3764271438, 0.7005897164, -1.6086385250, 0.4431059062, 0.2176566720, 0.2160159945, -0.3417748213, -0.0594469905, 0.0016848805, -1.1941150427, 0.3370329738, -0.0028648477, -0.1154995635, 0.2993644476, -0.2614253759, 0.0476264171, -0.4383963346, 0.8799700141, -0.6909240484, 0.0955452770, 0.0779708624, -0.1681167483, 0.3991338015, 0.0274440590, 0.6325595975, 1.0182353258, -0.2099920660};
#endif

#endif
