//Numpy array shape [15, 16]
//Min -2.034394741058
//Max 2.095311403275
//Number of zeros 0

#ifndef W2_H_
#define W2_H_

#ifndef __SYNTHESIS__
model_default_t w2[240];
#else
model_default_t w2[240] = {0.31944122910499572753906250, 0.18840631842613220214843750, 0.26245576143264770507812500, 0.36527779698371887207031250, -0.19202451407909393310546875, 0.26161664724349975585937500, -0.11844357848167419433593750, -0.36312282085418701171875000, -0.13783687353134155273437500, -0.39477106928825378417968750, 0.03794936835765838623046875, -0.06233420595526695251464844, 0.31799450516700744628906250, -0.51609569787979125976562500, -0.05499889701604843139648438, 0.02010273933410644531250000, 0.03123143687844276428222656, 0.22101400792598724365234375, 0.28660228848457336425781250, -0.18392792344093322753906250, 0.15305568277835845947265625, -0.30939596891403198242187500, 0.01668838225305080413818359, 0.33219590783119201660156250, 0.22183457016944885253906250, 0.41261824965476989746093750, -0.10049948841333389282226562, 0.01449280884116888046264648, 0.10188765823841094970703125, 0.30527019500732421875000000, -0.29272463917732238769531250, 0.22686290740966796875000000, 0.01440919004380702972412109, 0.01423339359462261199951172, -0.07499451935291290283203125, -0.42430371046066284179687500, -0.14358441531658172607421875, 0.39040037989616394042968750, 0.26963251829147338867187500, 0.00128735625185072422027588, -0.00438252463936805725097656, -0.12257093191146850585937500, 0.20047976076602935791015625, 0.00142628571484237909317017, 0.41959765553474426269531250, 0.20799526572227478027343750, -0.05375800654292106628417969, -0.43921026587486267089843750, 0.09182412922382354736328125, 0.39558774232864379882812500, 0.20513541996479034423828125, 0.27379938960075378417968750, -0.06309340149164199829101562, -0.05872717127203941345214844, -0.21405373513698577880859375, -0.12726910412311553955078125, -0.23473422229290008544921875, -0.10112439095973968505859375, 0.21139663457870483398437500, -0.11834939569234848022460938, 0.52002280950546264648437500, -0.07216154038906097412109375, -0.09343039244413375854492188, -0.35523056983947753906250000, 0.15129703283309936523437500, 0.63404077291488647460937500, -0.16884362697601318359375000, 0.00538222584873437881469727, -0.38008847832679748535156250, 0.10396894812583923339843750, 0.24573300778865814208984375, -0.03126208111643791198730469, 0.26597318053245544433593750, -0.01180492248386144638061523, -0.18902379274368286132812500, -0.18745195865631103515625000, -0.18144445121288299560546875, -0.11252958327531814575195312, 0.39724829792976379394531250, 0.27310681343078613281250000, -0.28255826234817504882812500, 0.42573896050453186035156250, -0.12086828798055648803710938, -0.36395612359046936035156250, 0.24912387132644653320312500, 0.12668591737747192382812500, 0.26949635148048400878906250, -0.31478160619735717773437500, 0.33994856476783752441406250, -0.09326792508363723754882812, 0.07949128746986389160156250, 0.40237718820571899414062500, 0.17314551770687103271484375, 0.24998819828033447265625000, -0.57656484842300415039062500, -0.17142507433891296386718750, -0.08793392777442932128906250, 0.16255663335323333740234375, -0.24647273123264312744140625, -0.02608081139624118804931641, 0.31937268376350402832031250, 0.36910891532897949218750000, -0.05802448093891143798828125, -0.26739206910133361816406250, 0.07983184605836868286132812, -0.25542894005775451660156250, -0.30891013145446777343750000, 0.36446341872215270996093750, 0.32953861355781555175781250, 0.41650539636611938476562500, 0.31699702143669128417968750, 0.05794721841812133789062500, 0.20152644813060760498046875, 0.10704952478408813476562500, -0.28176495432853698730468750, -0.14231382310390472412109375, -0.42442783713340759277343750, 0.16844013333320617675781250, -0.28013661503791809082031250, 0.11230500787496566772460938, -0.32898870110511779785156250, -0.30176460742950439453125000, 0.19723100960254669189453125, 0.35243022441864013671875000, -0.36644160747528076171875000, 0.47583609819412231445312500, 0.00863108970224857330322266, -0.35237357020378112792968750, -0.42454573512077331542968750, -0.36612886190414428710937500, -0.11335779726505279541015625, 0.05066720023751258850097656, 0.23465006053447723388671875, -0.50741976499557495117187500, -0.23826009035110473632812500, 0.35663196444511413574218750, 0.16853535175323486328125000, -0.25016120076179504394531250, 0.54040950536727905273437500, -0.03002017736434936523437500, 0.23546953499317169189453125, -0.37913450598716735839843750, -0.09331439435482025146484375, -0.43905261158943176269531250, -0.37698152661323547363281250, 0.35784676671028137207031250, 0.49860972166061401367187500, -0.36160480976104736328125000, -0.31161272525787353515625000, -0.01865678466856479644775391, 0.02026608400046825408935547, -0.03810534998774528503417969, -0.03055101260542869567871094, -0.03788322582840919494628906, -0.25934961438179016113281250, 0.62267625331878662109375000, -0.29671701788902282714843750, -0.02493853308260440826416016, -0.01719746552407741546630859, 0.03686115145683288574218750, -1.18814098834991455078125000, -0.30519458651542663574218750, -0.35969436168670654296875000, 0.40047734975814819335937500, -0.43407326936721801757812500, 0.90725362300872802734375000, 0.59570103883743286132812500, -0.87105375528335571289062500, -0.03403554111719131469726562, 0.38206052780151367187500000, 0.69281488656997680664062500, -1.05273902416229248046875000, 0.13146047294139862060546875, 1.09198522567749023437500000, 2.09531140327453613281250000, -0.29024270176887512207031250, 0.11061457544565200805664062, 1.04458129405975341796875000, -0.60912561416625976562500000, -0.32609924674034118652343750, -0.11216849088668823242187500, -0.70875054597854614257812500, -0.17453406751155853271484375, -0.20606940984725952148437500, -2.03439474105834960937500000, 0.10119647532701492309570312, -0.64189040660858154296875000, -0.23783257603645324707031250, -0.07553083449602127075195312, 0.30137881636619567871093750, -0.90499448776245117187500000, -0.13946032524108886718750000, -0.04530829936265945434570312, 0.52312868833541870117187500, 0.21459355950355529785156250, 0.20392243564128875732421875, 0.21698816120624542236328125, -0.01366569940000772476196289, 0.28448534011840820312500000, 0.22998380661010742187500000, -0.74174392223358154296875000, 0.12401495873928070068359375, -0.86426812410354614257812500, 0.22604729235172271728515625, -0.41593179106712341308593750, -0.67435258626937866210937500, -0.36748379468917846679687500, 0.09910875558853149414062500, 0.08018989115953445434570312, -0.29371583461761474609375000, -0.49208542704582214355468750, -0.41810080409049987792968750, 0.25534084439277648925781250, -0.05468646064400672912597656, 0.27949607372283935546875000, -0.04357839375734329223632812, -0.32757782936096191406250000, 0.15066190063953399658203125, -0.00733734806999564170837402, 0.44725251197814941406250000, -0.25761094689369201660156250, 0.28014081716537475585937500, -0.64505141973495483398437500, -0.07923677563667297363281250, 0.39694958925247192382812500, -0.66392529010772705078125000, 0.89071035385131835937500000, 0.34493428468704223632812500, -0.07672014832496643066406250, 0.00939264241605997085571289, -0.71942102909088134765625000, 0.92224508523941040039062500, 0.41021507978439331054687500, 0.10259097814559936523437500, 0.79751384258270263671875000, 0.39946657419204711914062500, -0.07924957573413848876953125, -0.38298806548118591308593750, 0.09561049938201904296875000, -0.10184994339942932128906250};
#endif

#endif
