//Numpy array shape [16, 16]
//Min -3.551845550537
//Max 3.306406736374
//Number of zeros 0

#ifndef W4_H_
#define W4_H_

#ifndef __SYNTHESIS__
model_default_t w4[256];
#else
model_default_t w4[256] = {-1.31018733978271484375000000, 0.75297808647155761718750000, 0.26562091708183288574218750, -0.10594805330038070678710938, 0.51504027843475341796875000, 0.68449455499649047851562500, -0.62763905525207519531250000, -0.17510826885700225830078125, 0.30581861734390258789062500, -0.87578105926513671875000000, 0.28002798557281494140625000, 0.29435822367668151855468750, 0.43120962381362915039062500, 0.54041624069213867187500000, -1.03788816928863525390625000, 0.89278906583786010742187500, 0.00914450641721487045288086, -0.13529393076896667480468750, -0.23927657306194305419921875, 0.54897594451904296875000000, 0.42105188965797424316406250, 0.22388976812362670898437500, 0.49366742372512817382812500, 0.32280400395393371582031250, 0.31994944810867309570312500, 0.25550282001495361328125000, 0.02772018127143383026123047, -0.09267976880073547363281250, 0.23970144987106323242187500, 0.24470157921314239501953125, 0.44875097274780273437500000, 0.39912822842597961425781250, -0.00906155817210674285888672, 0.39312145113945007324218750, -0.28168034553527832031250000, -0.05383872985839843750000000, -0.54894012212753295898437500, 0.00704415095970034599304199, -0.36342209577560424804687500, -0.28045770525932312011718750, -0.10191775858402252197265625, -0.37279814481735229492187500, 0.32066226005554199218750000, -0.29129627346992492675781250, 0.41661033034324645996093750, 0.82570803165435791015625000, 0.08214364945888519287109375, 0.49584341049194335937500000, 0.39381197094917297363281250, -0.18196578323841094970703125, 0.32780006527900695800781250, 0.19743490219116210937500000, 0.30931821465492248535156250, 0.38331273198127746582031250, 0.39058521389961242675781250, -0.17300933599472045898437500, 0.20508636534214019775390625, -0.13914626836776733398437500, -0.31964555382728576660156250, 0.25100722908973693847656250, -0.11421240866184234619140625, -0.13593733310699462890625000, 0.05579101294279098510742188, -0.41095176339149475097656250, 0.13425976037979125976562500, -0.15256893634796142578125000, -0.33543559908866882324218750, 0.02453282475471496582031250, 0.17722861468791961669921875, -0.38711172342300415039062500, -0.13382814824581146240234375, 0.10240470618009567260742188, -0.05061190575361251831054688, 0.28662440180778503417968750, 0.39997652173042297363281250, 0.40472552180290222167968750, -0.41720238327980041503906250, -0.13963916897773742675781250, 0.27389955520629882812500000, 0.46674332022666931152343750, 0.36685636639595031738281250, -0.14965921640396118164062500, 0.38227954506874084472656250, 0.17543853819370269775390625, -0.65927809476852416992187500, 0.06062876060605049133300781, -0.28706279397010803222656250, 0.24856291711330413818359375, -0.39695659279823303222656250, 0.46209788322448730468750000, 0.12480422109365463256835938, -0.34173488616943359375000000, -0.11520224809646606445312500, 0.61611145734786987304687500, 0.53402572870254516601562500, -0.25735047459602355957031250, 0.26900693774223327636718750, -0.21849727630615234375000000, -0.20949688553810119628906250, 0.51814919710159301757812500, 0.35104209184646606445312500, -0.78677970170974731445312500, 0.20131506025791168212890625, 0.30939868092536926269531250, -0.41610851883888244628906250, 0.55112707614898681640625000, 0.05373789370059967041015625, 0.37353327870368957519531250, -0.70086598396301269531250000, -1.10593187808990478515625000, 0.57086014747619628906250000, -0.47037452459335327148437500, -0.51676541566848754882812500, 1.04993855953216552734375000, -0.21925392746925354003906250, -1.00933456420898437500000000, -0.30533927679061889648437500, 0.88559705018997192382812500, -0.76809936761856079101562500, -0.49527809023857116699218750, 0.81876713037490844726562500, -1.06084382534027099609375000, -0.38069555163383483886718750, 0.18784120678901672363281250, 0.76653355360031127929687500, 0.35531270503997802734375000, -0.21888954937458038330078125, 0.57732051610946655273437500, -2.31875991821289062500000000, 0.77777111530303955078125000, 0.32304236292839050292968750, -0.55630683898925781250000000, -0.36206132173538208007812500, 0.33540037274360656738281250, 0.13190585374832153320312500, -0.35394087433815002441406250, -0.13767579197883605957031250, -0.79696017503738403320312500, -0.04828495159745216369628906, 0.19248250126838684082031250, 0.02142001129686832427978516, 1.10355830192565917968750000, -0.41897052526473999023437500, 0.50470703840255737304687500, -0.10117412358522415161132812, -0.19615633785724639892578125, -0.14062497019767761230468750, 0.32056134939193725585937500, 0.01963169872760772705078125, 0.18227738142013549804687500, 0.14136651158332824707031250, -0.00050816941075026988983154, -0.05655235797166824340820312, -0.36837869882583618164062500, 0.11159425228834152221679688, -0.40173253417015075683593750, -0.40317109227180480957031250, -0.30035120248794555664062500, 0.38900431990623474121093750, 0.11943340301513671875000000, 0.28089538216590881347656250, 0.27292293310165405273437500, -0.14985871315002441406250000, -0.02330193854868412017822266, -0.98776304721832275390625000, -0.39829346537590026855468750, 0.23778180778026580810546875, -0.03806719556450843811035156, -0.18814818561077117919921875, 0.37721952795982360839843750, -0.07811037451028823852539062, -0.38011258840560913085937500, -0.19164988398551940917968750, 0.90321016311645507812500000, 0.53547179698944091796875000, -0.44877892732620239257812500, -0.37527415156364440917968750, 0.61814796924591064453125000, 0.27792444825172424316406250, -0.63502025604248046875000000, -0.25721085071563720703125000, 0.59576559066772460937500000, -0.30539646744728088378906250, -0.81370729207992553710937500, 0.71486240625381469726562500, -0.55923801660537719726562500, -0.10399261116981506347656250, -0.40611365437507629394531250, 0.03869672492146492004394531, 0.56275403499603271484375000, -0.09035430103540420532226562, 0.29307788610458374023437500, 0.32780447602272033691406250, -0.15383917093276977539062500, -0.00383716821670532226562500, -0.34310397505760192871093750, 0.05346488207578659057617188, -0.29018265008926391601562500, -0.30256694555282592773437500, 0.13105286657810211181640625, -0.31824922561645507812500000, 0.42555916309356689453125000, -0.48424613475799560546875000, 0.01221659779548645019531250, -0.29906994104385375976562500, -0.02894442714750766754150391, 0.27497491240501403808593750, 0.01922159828245639801025391, -2.09827923774719238281250000, 1.77617442607879638671875000, -0.35483115911483764648437500, -3.55184555053710937500000000, 1.12537574768066406250000000, 1.75306260585784912109375000, -3.40296363830566406250000000, -3.48707699775695800781250000, 1.23616242408752441406250000, -1.27213883399963378906250000, 0.07123873382806777954101562, 0.07660731673240661621093750, 1.30210018157958984375000000, 0.95712268352508544921875000, -1.48529970645904541015625000, 1.33348345756530761718750000, -2.55078220367431640625000000, 2.86173462867736816406250000, -0.30735448002815246582031250, -2.05531740188598632812500000, 1.05258965492248535156250000, 2.11838555335998535156250000, -2.33372211456298828125000000, -2.35643768310546875000000000, 2.65260076522827148437500000, -2.25292181968688964843750000, 0.28762775659561157226562500, -0.35694456100463867187500000, 2.23001956939697265625000000, 3.30640673637390136718750000, -1.99237680435180664062500000, 2.32436561584472656250000000, -0.36724412441253662109375000, -0.03046715259552001953125000, 0.35748478770256042480468750, 0.12214747071266174316406250, -0.11760357022285461425781250, 0.01954340934753417968750000, 0.42919823527336120605468750, -0.13381528854370117187500000, -0.25274795293807983398437500, -0.35685443878173828125000000, 0.28034344315528869628906250, 0.28903940320014953613281250, -0.23978111147880554199218750, 0.12486609816551208496093750, -0.16220179200172424316406250, 0.04131966829299926757812500};
#endif

#endif
