//Numpy array shape [16, 8]
//Min -2.381058454514
//Max 1.753377556801
//Number of zeros 0

#ifndef W6_H_
#define W6_H_

#ifndef __SYNTHESIS__
model_default_t w6[128];
#else
model_default_t w6[128] = {-0.45627155900001525878906250, -0.28888386487960815429687500, -0.95062661170959472656250000, -0.22712618112564086914062500, 0.91332131624221801757812500, -0.77073377370834350585937500, -1.00544226169586181640625000, -1.02885401248931884765625000, 0.24263332784175872802734375, 0.27919518947601318359375000, 1.32010757923126220703125000, -0.03304035589098930358886719, -1.64948523044586181640625000, 1.49805092811584472656250000, 0.93434703350067138671875000, -1.16343176364898681640625000, -0.23971128463745117187500000, 0.30904865264892578125000000, 0.08305966854095458984375000, 0.17559754848480224609375000, 0.07734262943267822265625000, -0.01023828983306884765625000, 0.44525837898254394531250000, 0.47125446796417236328125000, 0.71058708429336547851562500, 0.19674444198608398437500000, -0.23475190997123718261718750, -0.46370986104011535644531250, 1.03907227516174316406250000, -0.54283392429351806640625000, -0.55354887247085571289062500, 0.54113787412643432617187500, 1.75337755680084228515625000, -0.22065480053424835205078125, 1.06679737567901611328125000, -0.29641434550285339355468750, -1.58804130554199218750000000, 1.17675781250000000000000000, 0.78380030393600463867187500, -0.32275471091270446777343750, -0.26331457495689392089843750, 0.56647980213165283203125000, 0.55344444513320922851562500, -0.36263376474380493164062500, -0.90433675050735473632812500, 0.55763232707977294921875000, 1.03895068168640136718750000, 0.14275051653385162353515625, 0.78717839717864990234375000, -0.43186461925506591796875000, -1.11698770523071289062500000, 0.11481685936450958251953125, 1.26667892932891845703125000, -0.44760596752166748046875000, -0.14915493130683898925781250, 0.40513283014297485351562500, 0.51073718070983886718750000, 0.11228325963020324707031250, -1.16283392906188964843750000, 0.26474136114120483398437500, 0.52953016757965087890625000, -0.49808874726295471191406250, -0.43854543566703796386718750, 0.41905915737152099609375000, 0.65723651647567749023437500, -0.07529135793447494506835938, 1.06216585636138916015625000, -0.08072657138109207153320312, -0.73740392923355102539062500, 0.96267616748809814453125000, 1.13638818264007568359375000, -2.38105845451354980468750000, 0.43010938167572021484375000, 0.18529655039310455322265625, -0.34765177965164184570312500, 0.05796351283788681030273438, 1.07609176635742187500000000, -0.91451179981231689453125000, -0.50748360157012939453125000, -0.43869763612747192382812500, 0.11836444586515426635742188, 0.23598730564117431640625000, -0.19582919776439666748046875, 0.44130870699882507324218750, 0.23493458330631256103515625, 0.07174415886402130126953125, -0.30745124816894531250000000, -0.10890059918165206909179688, -0.28079938888549804687500000, 0.27466762065887451171875000, 0.23242378234863281250000000, -0.24970746040344238281250000, -0.02056550979614257812500000, -0.12832665443420410156250000, -0.20314812660217285156250000, -0.44886398315429687500000000, -0.04733907058835029602050781, -0.32110854983329772949218750, 1.06322085857391357421875000, 0.29692399501800537109375000, -0.52766323089599609375000000, 0.58384597301483154296875000, 0.48790669441223144531250000, 0.35743719339370727539062500, -0.86043214797973632812500000, 0.23453453183174133300781250, 0.57238352298736572265625000, -0.28722313046455383300781250, 0.32781738042831420898437500, 0.59346616268157958984375000, 0.04547460004687309265136719, 0.18278148770332336425781250, -0.05474789068102836608886719, -0.04705009236931800842285156, -0.32644021511077880859375000, 0.41142052412033081054687500, 0.78584444522857666015625000, -0.02944270521402359008789062, -0.33143755793571472167968750, -0.47940021753311157226562500, -0.27755203843116760253906250, -0.30234169960021972656250000, 0.52866661548614501953125000, 0.15191398561000823974609375, -0.25679638981819152832031250, 0.32436385750770568847656250, 0.85463297367095947265625000, 0.19801920652389526367187500};
#endif

#endif
